SVM-light Version V6.02
0 # kernel type
3 # kernel parameter -d 
1 # kernel parameter -g 
1 # kernel parameter -s 
1 # kernel parameter -r 
empty# kernel parameter -u 
461 # highest feature index 
71 # number of training documents 
72 # number of support vectors plus 1 
-0.78427841 # threshold b, each following line is a SV (starting with alpha*y)
-0.0066352495264225498303178873982233 3:0.58778667 5:0.07696104 25:0.9932518 256:3.2958369 257:3.2958369 281:3.2958369 #
-0.0066352495264225498303178873982233 3:0.58778667 5:0.07696104 25:0.9932518 43:3.2958369 63:3.2958369 104:3.2958369 115:2.6026897 150:1.5040774 151:2.6026897 155:3.2958369 158:3.2958369 200:2.1972246 221:3.2958369 263:1.9095426 282:2.6026897 #
-0.0066352495264225498303178873982233 5:0.07696104 10:0.65677953 25:0.9932518 34:3.2958369 67:3.2958369 74:3.2958369 75:3.2958369 97:3.2958369 125:3.2958369 159:2.6026897 169:2.6026897 195:1.6218604 202:3.2958369 266:3.2958369 278:2.1972246 285:1.5040774 286:1.0464963 299:3.2958369 316:3.2958369 325:2.6026897 #
-0.0066352495264225498303178873982233 3:1.1755733 5:0.07696104 9:3.2958369 50:3.2958369 78:3.2958369 95:3.2958369 111:2.1972246 144:2.6026897 173:3.2958369 195:0.81093019 211:3.2958369 222:3.2958369 258:3.2958369 259:3.2958369 274:3.2958369 286:1.5697445 #
-0.0066352495264225498303178873982233 5:0.07696104 10:0.65677953 25:1.9865036 47:2.1972246 84:3.2958369 94:3.2958369 107:3.2958369 143:1.686399 184:3.2958369 186:3.2958369 201:3.2958369 276:3.2958369 310:3.2958369 314:3.2958369 #
0.0023321554553641880153103116413149 1:6.182085 7:0.52609313 9:0.095310181 11:3.7841897 15:0.64869541 30:1.0761395 34:3.7841897 43:2.1747518 72:3.7841897 85:3.7841897 92:3.7841897 99:3.7841897 128:2.6855774 166:3.7841897 173:3.7841897 184:3.7841897 217:1.299283 225:3.7841897 253:3.0910425 281:3.0910425 295:3.0910425 349:3.7841897 353:3.7841897 358:3.7841897 374:3.7841897 380:3.7841897 396:2.6855774 397:1.299283 399:1.3862944 411:2.5985661 429:3.7841897 #
0.0031245778208210187032456417455251 1:6.182085 9:0.38124073 15:0.64869541 21:3.7841897 65:3.7841897 78:3.7841897 79:3.7841897 87:3.7841897 98:3.7841897 122:3.7841897 134:3.7841897 169:3.7841897 197:3.7841897 217:1.299283 223:3.7841897 224:3.7841897 245:3.7841897 261:3.7841897 289:4.8769612 307:3.7841897 325:7.5683794 345:3.7841897 366:1.9924302 397:1.299283 399:2.0794415 412:3.7841897 418:3.7841897 431:3.7841897 451:3.7841897 #
0.0066352495264225498303178873982233 50:3.7841897 60:2.6855774 117:3.0910425 414:3.7841897 #
0.0005357633766131287850892350732579 7:0.52609313 9:0.095310181 15:0.64869541 158:3.7841897 165:2.6855774 167:3.0910425 182:2.6855774 203:2.6855774 217:1.299283 237:2.1747518 272:3.0910425 311:3.7841897 371:3.7841897 377:3.7841897 399:0.69314718 411:5.1971321 434:3.7841897 461:3.0910425 #
0.002437750725180916431394928522991 7:0.52609313 9:0.095310181 29:2.6855774 30:1.0761395 36:3.0910425 107:3.7841897 123:3.7841897 146:3.7841897 193:3.7841897 218:3.7841897 219:1.3862944 226:3.7841897 237:2.1747518 269:3.0910425 287:3.7841897 294:3.0910425 328:3.0910425 366:1.9924302 370:3.7841897 397:1.299283 398:3.0910425 #
-0.0066352495264225498303178873982233 3:1.1755733 5:0.07696104 10:0.65677953 25:1.9865036 31:3.2958369 32:3.2958369 35:3.2958369 42:3.2958369 87:3.2958369 106:3.2958369 116:3.2958369 127:3.2958369 130:2.6026897 133:3.2958369 136:3.2958369 138:3.2958369 143:1.686399 163:3.2958369 185:3.2958369 193:3.2958369 195:0.81093019 197:2.1972246 217:3.2958369 237:3.2958369 261:3.2958369 262:3.2958369 270:3.2958369 271:3.2958369 286:1.5697445 296:1.0986123 304:3.2958369 307:3.2958369 311:3.2958369 319:2.6026897 320:2.6026897 #
-0.0066352495264225498303178873982233 1:3.2958369 2:13.183348 3:1.1755733 5:0.07696104 8:3.2958369 25:0.9932518 55:3.2958369 66:3.2958369 86:3.2958369 91:3.2958369 102:2.6026897 117:3.2958369 124:3.2958369 154:3.2958369 160:3.2958369 170:3.2958369 195:0.81093019 206:3.2958369 218:3.2958369 225:3.2958369 239:3.2958369 241:3.2958369 246:3.2958369 260:3.2958369 278:2.1972246 286:1.0464963 309:2.6026897 320:2.6026897 326:3.2958369 327:3.2958369 #
-0.0066352495264225498303178873982233 3:0.58778667 5:0.07696104 21:3.2958369 22:3.2958369 28:2.1972246 36:3.2958369 49:2.6026897 53:3.2958369 64:3.2958369 132:3.2958369 140:3.2958369 148:1.3499267 178:2.1972246 231:3.2958369 272:2.6026897 284:3.2958369 286:0.52324814 289:3.2958369 295:3.2958369 296:1.0986123 308:3.2958369 #
-0.0066352495264225498303178873982233 3:0.58778667 5:0.07696104 10:0.65677953 17:2.6026897 28:2.1972246 33:3.2958369 52:3.2958369 92:3.2958369 96:3.2958369 146:3.2958369 167:3.2958369 175:2.6026897 195:0.81093019 212:3.2958369 234:2.6026897 267:3.2958369 286:1.0464963 292:1.9095426 296:1.0986123 305:3.2958369 309:2.6026897 313:3.2958369 321:2.6026897 #
-0.0066352495264225498303178873982233 3:0.58778667 5:0.07696104 17:2.6026897 19:3.2958369 29:3.2958369 47:2.1972246 79:3.2958369 82:2.6026897 98:3.2958369 111:2.1972246 123:3.2958369 139:3.2958369 143:1.686399 150:1.5040774 152:7.8080692 178:2.1972246 183:3.2958369 232:3.2958369 252:3.2958369 277:3.2958369 286:1.0464963 296:2.1972246 #
0.0043569740456890077018314855195058 7:1.0521863 9:0.095310181 15:1.2973908 83:3.0910425 95:3.7841897 144:3.7841897 148:1.8382795 149:3.7841897 155:3.0910425 175:3.7841897 206:2.9632092 222:4.7957907 256:3.0910425 257:3.7841897 426:3.7841897 454:3.7841897 #
0.0050159315896315956675999281344502 7:1.0521863 9:0.095310181 15:0.64869541 60:2.6855774 86:3.7841897 97:3.7841897 130:3.0910425 142:3.7841897 150:6.182085 155:3.0910425 219:1.3862944 221:2.1747518 271:3.7841897 283:3.7841897 285:3.7841897 376:3.7841897 405:2.6855774 445:3.7841897 447:3.0910425 450:1.9924302 #
0.0060176336137875482273917882025671 9:0.095310181 15:0.64869541 30:2.1522789 38:3.7841897 61:3.0910425 84:3.7841897 104:3.7841897 132:3.7841897 154:3.7841897 164:3.7841897 200:3.7841897 205:3.7841897 275:3.7841897 289:1.2192403 308:3.7841897 #
0.0066352495264225498303178873982233 7:0.52609313 9:0.095310181 25:3.7841897 117:3.0910425 135:3.7841897 221:2.1747518 260:3.7841897 288:3.7841897 #
0.0025747521260725981379069438048646 7:0.52609313 9:0.095310181 219:1.3862944 274:3.0910425 278:3.7841897 316:3.7841897 334:3.7841897 366:1.9924302 382:3.7841897 399:0.69314718 424:3.7841897 436:2.6855774 #
-0.0066352495264225498303178873982233 5:0.07696104 10:0.65677953 11:3.2958369 13:3.2958369 25:0.9932518 26:3.2958369 28:2.1972246 38:3.2958369 105:3.2958369 112:3.2958369 119:3.2958369 131:2.1972246 150:1.5040774 162:3.2958369 164:3.2958369 166:3.2958369 214:3.2958369 228:3.2958369 254:3.2958369 255:3.2958369 264:2.6026897 273:3.2958369 285:3.0081549 286:0.52324814 288:3.2958369 291:3.2958369 296:1.0986123 321:2.6026897 #
-0.0066352495264225498303178873982233 10:0.65677953 12:1.9095426 25:0.9932518 37:3.2958369 41:3.2958369 49:2.6026897 65:3.2958369 77:3.2958369 81:3.2958369 121:3.2958369 148:1.3499267 181:6.5916739 205:3.2958369 275:3.2958369 285:1.5040774 286:1.0464963 287:3.2958369 296:1.0986123 298:3.2958369 323:1.9095426 #
-0.0066352495264225498303178873982233 5:0.07696104 6:3.2958369 7:3.2958369 12:1.9095426 72:3.2958369 130:2.6026897 171:3.2958369 176:3.2958369 180:2.6026897 195:0.81093019 200:2.1972246 292:1.9095426 #
-0.0066352495264225498303178873982233 4:3.2958369 5:0.07696104 12:1.9095426 23:2.6026897 25:0.9932518 30:3.2958369 44:3.2958369 61:3.2958369 88:3.2958369 111:2.1972246 120:3.2958369 126:3.2958369 148:1.3499267 150:1.5040774 172:3.2958369 178:2.1972246 180:2.6026897 198:3.2958369 200:2.1972246 219:3.2958369 229:3.2958369 269:3.2958369 279:3.2958369 286:1.5697445 290:2.6026897 293:3.2958369 294:3.2958369 296:2.1972246 #
-0.0066352495264225498303178873982233 5:0.07696104 10:1.3135591 15:3.2958369 28:1.0986123 48:3.2958369 56:3.2958369 62:3.2958369 93:3.2958369 118:3.2958369 143:1.686399 148:2.6998534 169:2.6026897 179:3.2958369 213:3.2958369 215:3.2958369 220:3.2958369 224:3.2958369 226:3.2958369 238:3.2958369 245:3.2958369 263:1.9095426 282:2.6026897 285:3.0081549 286:1.0464963 302:3.2958369 317:3.2958369 #
0.0056715025533165966745152708483602 2:3.7841897 7:1.0521863 9:0.095310181 15:0.64869541 16:4.7957907 19:3.7841897 27:3.7841897 28:3.7841897 45:3.7841897 52:3.7841897 70:3.7841897 148:1.8382795 165:2.6855774 195:3.7841897 206:1.4816046 207:3.7841897 208:3.7841897 209:3.7841897 216:3.7841897 217:1.299283 219:1.3862944 242:3.7841897 248:3.7841897 289:1.2192403 296:3.0910425 366:3.9848604 367:2.6855774 397:1.299283 399:0.69314718 416:3.0910425 427:3.7841897 436:2.6855774 450:1.9924302 453:3.7841897 #
0.0037243551498288606296793723515748 8:3.7841897 9:0.095310181 17:3.7841897 23:2.6855774 82:3.7841897 128:2.6855774 148:1.8382795 160:3.7841897 172:3.0910425 182:2.6855774 211:3.7841897 215:2.6855774 264:3.7841897 279:3.7841897 289:2.4384806 320:3.7841897 330:3.7841897 367:2.6855774 399:2.7725887 405:2.6855774 416:3.0910425 444:2.3978953 #
0.0066352495264225498303178873982233 7:1.0521863 9:0.095310181 15:0.64869541 20:3.7841897 30:1.0761395 35:3.7841897 41:3.7841897 49:3.7841897 75:3.7841897 77:3.7841897 110:3.7841897 190:3.0910425 229:3.7841897 237:2.1747518 251:3.7841897 255:3.7841897 282:3.7841897 296:3.0910425 432:3.7841897 #
0.0042747004105427319556320675530969 9:0.095310181 129:2.3978953 167:3.0910425 180:3.7841897 188:3.7841897 214:3.7841897 217:1.299283 239:3.7841897 250:3.7841897 266:3.0910425 284:3.0910425 303:3.7841897 305:3.7841897 309:3.0910425 347:3.7841897 361:3.7841897 397:1.299283 399:0.69314718 411:1.299283 450:1.9924302 #
0.0066352495264225498303178873982233 9:0.095310181 15:0.64869541 152:3.7841897 206:1.4816046 254:3.7841897 258:3.7841897 399:0.69314718 460:3.0910425 #
-0.0066352495264225498303178873982233 3:1.76336 5:0.07696104 20:3.2958369 45:3.2958369 58:3.2958369 90:3.2958369 108:3.2958369 129:3.2958369 135:2.6026897 137:3.2958369 190:3.2958369 195:1.6218604 204:3.2958369 242:3.2958369 248:3.2958369 250:3.2958369 286:1.0464963 296:1.0986123 318:3.2958369 322:3.2958369 323:1.9095426 #
-0.0066352495264225498303178873982233 3:0.58778667 5:0.07696104 10:0.65677953 27:2.6026897 28:1.0986123 40:3.2958369 51:3.2958369 80:3.2958369 85:3.2958369 131:2.1972246 142:3.2958369 159:2.6026897 165:3.2958369 194:3.2958369 195:0.81093019 196:3.2958369 199:3.2958369 216:3.2958369 227:3.2958369 286:0.52324814 292:1.9095426 303:3.2958369 319:2.6026897 324:3.2958369 325:2.6026897 #
-0.0066352495264225498303178873982233 10:0.65677953 16:3.2958369 18:3.2958369 23:2.6026897 39:3.2958369 46:3.2958369 69:3.2958369 82:2.6026897 101:3.2958369 113:3.2958369 134:3.2958369 148:1.3499267 195:0.81093019 203:2.6026897 283:3.2958369 286:1.0464963 297:3.2958369 323:1.9095426 #
-0.0066352495264225498303178873982233 5:0.07696104 10:0.65677953 14:3.2958369 25:0.9932518 27:2.6026897 128:3.2958369 247:3.2958369 253:3.2958369 272:2.6026897 286:1.0464963 306:3.2958369 323:1.9095426 #
-0.0066352495264225498303178873982233 3:0.58778667 5:0.07696104 47:2.1972246 60:3.2958369 145:2.6026897 191:1.9095426 #
0.0066352495264225498303178873982233 3:3.7841897 7:0.52609313 112:3.7841897 121:3.7841897 213:3.7841897 231:3.7841897 342:3.7841897 #
0.0020859198210847304695569892629692 7:1.0521863 9:0.095310181 15:1.9460863 23:2.6855774 30:1.0761395 43:2.1747518 48:3.7841897 53:3.7841897 61:9.2731276 102:3.7841897 103:3.7841897 119:7.5683794 143:3.7841897 148:1.8382795 178:3.7841897 192:3.0910425 217:2.5985661 219:1.3862944 232:3.7841897 253:3.0910425 256:3.0910425 259:3.7841897 284:3.0910425 333:3.7841897 338:3.7841897 343:3.7841897 399:0.69314718 400:3.7841897 406:2.6855774 411:3.8978488 448:3.0910425 450:1.9924302 452:3.7841897 #
0.0032906022269142054179069667441127 7:1.0521863 9:0.19062036 12:3.7841897 15:0.64869541 16:2.3978953 30:1.0761395 36:9.2731276 39:3.7841897 40:2.6855774 59:3.7841897 101:3.7841897 113:3.7841897 120:3.7841897 127:3.7841897 137:3.7841897 170:3.7841897 196:3.7841897 219:2.7725887 230:3.7841897 252:3.7841897 265:3.7841897 292:3.7841897 301:3.7841897 312:3.7841897 323:3.0910425 327:3.7841897 381:3.7841897 383:2.6855774 389:3.7841897 397:1.299283 399:0.69314718 408:3.0910425 417:3.7841897 438:3.0910425 450:3.9848604 #
0.0029299587592914893598161629739707 5:3.0910425 6:3.0910425 7:0.52609313 9:0.095310181 15:0.64869541 16:2.3978953 93:3.7841897 111:3.7841897 118:3.7841897 201:3.7841897 203:2.6855774 206:1.4816046 221:2.1747518 228:3.7841897 237:2.1747518 289:1.2192403 302:3.7841897 319:3.7841897 326:3.7841897 392:3.7841897 399:1.3862944 401:3.7841897 403:3.7841897 411:1.299283 425:3.7841897 435:3.0910425 #
0.0026890968693359640871720639410114 4:3.7841897 9:0.095310181 29:2.6855774 42:3.7841897 81:3.7841897 83:3.0910425 129:2.3978953 139:3.7841897 206:1.4816046 215:2.6855774 220:3.7841897 241:3.7841897 267:3.0910425 289:1.2192403 324:3.7841897 339:3.7841897 399:1.3862944 428:3.7841897 441:3.7841897 444:2.3978953 458:3.7841897 #
-0.0066352495264225498303178873982233 3:0.58778667 5:0.07696104 10:3.9406772 12:1.9095426 28:1.0986123 54:3.2958369 57:3.2958369 59:3.2958369 99:3.2958369 103:3.2958369 148:1.3499267 149:3.2958369 150:3.0081549 157:3.2958369 182:2.6026897 195:3.2437208 203:2.6026897 209:3.2958369 223:3.2958369 230:3.2958369 263:1.9095426 296:1.0986123 #
-0.0066352495264225498303178873982233 5:0.07696104 10:0.65677953 174:3.2958369 187:3.2958369 236:3.2958369 251:3.2958369 285:1.5040774 301:3.2958369 #
-0.0066352495264225498303178873982233 3:0.58778667 5:0.30784416 10:1.9703386 68:3.2958369 70:3.2958369 109:3.2958369 110:3.2958369 114:3.2958369 131:2.1972246 144:2.6026897 147:3.2958369 161:3.2958369 168:3.2958369 175:2.6026897 177:3.2958369 189:3.2958369 195:0.81093019 197:2.1972246 240:3.2958369 243:3.2958369 265:3.2958369 278:2.1972246 285:1.5040774 290:2.6026897 300:3.2958369 #
-0.0066352495264225498303178873982233 5:0.07696104 28:1.0986123 100:3.2958369 182:2.6026897 191:1.9095426 263:1.9095426 268:3.2958369 #
-0.0066352495264225498303178873982233 5:0.3848052 73:3.2958369 83:3.2958369 102:2.6026897 148:1.3499267 156:3.2958369 195:0.81093019 210:3.2958369 234:2.6026897 244:3.2958369 264:2.6026897 280:3.2958369 286:1.5697445 #
0.0048206993397233036460769461939435 7:1.0521863 30:1.0761395 62:3.7841897 66:3.7841897 67:3.7841897 94:3.7841897 191:3.7841897 194:3.7841897 243:3.7841897 304:3.7841897 306:3.7841897 348:3.7841897 397:1.299283 399:0.69314718 423:3.7841897 430:3.7841897 #
0.0066352495264225498303178873982233 9:0.095310181 10:3.7841897 29:2.6855774 58:3.7841897 130:3.0910425 202:3.7841897 206:1.4816046 234:3.7841897 247:3.7841897 297:3.7841897 352:3.7841897 383:2.6855774 397:1.299283 399:0.69314718 #
0.0066352495264225498303178873982233 7:1.0521863 9:0.095310181 15:0.64869541 148:1.8382795 199:3.7841897 212:3.7841897 321:3.7841897 407:3.0910425 #
0.0039279828267841524272463438194336 7:0.52609313 9:0.095310181 26:3.7841897 30:2.1522789 43:2.1747518 131:3.7841897 219:1.3862944 240:3.7841897 262:3.7841897 280:3.7841897 290:3.0910425 357:3.7841897 364:3.7841897 378:3.7841897 406:2.6855774 415:3.7841897 #
0.0038242801010139717068914144704195 9:0.095310181 15:0.64869541 37:3.7841897 68:3.7841897 71:3.7841897 74:3.0910425 100:3.7841897 276:3.7841897 289:2.4384806 291:2.6855774 336:3.0910425 363:3.0910425 388:3.7841897 #
-0.0066352495264225498303178873982233 3:0.58778667 5:0.07696104 24:3.2958369 28:3.2958369 71:3.2958369 76:3.2958369 89:3.2958369 115:2.6026897 122:3.2958369 135:2.6026897 143:1.686399 150:1.5040774 153:3.2958369 188:3.2958369 191:1.9095426 192:3.2958369 235:3.2958369 249:3.2958369 292:1.9095426 315:3.2958369 #
-0.0066352495264225498303178873982233 3:1.1755733 5:0.15392208 10:1.3135591 28:1.0986123 141:3.2958369 145:2.6026897 151:5.2053795 152:2.6026897 191:1.9095426 197:2.1972246 207:3.2958369 208:3.2958369 233:3.2958369 312:3.2958369 #
0.0034153640948306781925658537346635 9:0.38124073 15:0.64869541 18:3.7841897 56:3.7841897 109:3.7841897 161:3.7841897 189:3.7841897 192:3.0910425 219:1.3862944 227:3.7841897 238:3.7841897 310:3.7841897 314:3.7841897 331:3.7841897 340:3.7841897 369:3.7841897 397:1.299283 411:1.299283 413:3.7841897 444:2.3978953 457:3.7841897 #
0.0046240858888384611669053469995561 9:0.095310181 15:1.2973908 30:1.0761395 96:3.7841897 106:3.7841897 108:3.7841897 147:3.7841897 150:3.0910425 168:3.7841897 219:1.3862944 315:3.7841897 318:3.7841897 354:3.7841897 440:3.0910425 450:1.9924302 #
0.0038848603091607204242097228785724 9:0.095310181 15:0.64869541 30:1.0761395 40:2.6855774 64:3.7841897 133:3.7841897 157:3.7841897 172:3.0910425 177:3.7841897 182:2.6855774 269:3.0910425 386:3.7841897 404:2.6855774 409:3.7841897 456:3.0910425 459:3.7841897 #
0.0066352495264225498303178873982233 9:0.095310181 105:3.7841897 203:2.6855774 204:3.7841897 300:3.7841897 391:3.7841897 #
0.002105813376115703901975129141988 7:0.52609313 9:0.19062036 15:0.64869541 33:3.7841897 46:3.7841897 47:3.7841897 54:3.7841897 55:3.7841897 69:3.7841897 73:3.7841897 88:3.7841897 187:3.7841897 206:1.4816046 215:2.6855774 217:1.299283 237:2.1747518 267:3.0910425 289:1.2192403 293:7.5683794 298:3.7841897 299:3.7841897 335:3.7841897 337:3.7841897 359:3.7841897 366:1.9924302 367:2.6855774 384:3.7841897 393:3.7841897 397:1.299283 399:1.3862944 402:3.7841897 411:1.299283 460:3.0910425 #
0.0041298958025572218150101022615672 7:0.52609313 9:0.19062036 24:3.7841897 63:3.7841897 156:3.7841897 190:3.0910425 206:1.4816046 217:1.299283 244:3.7841897 273:3.7841897 375:3.7841897 385:3.7841897 420:3.7841897 #
0.0066352495264225498303178873982233 7:0.52609313 9:0.095310181 30:1.0761395 91:3.7841897 151:3.7841897 236:3.7841897 #
0.0065602557252733943726763499171284 7:0.52609313 9:0.095310181 129:2.3978953 138:3.7841897 140:3.7841897 174:3.7841897 272:3.0910425 289:1.2192403 294:3.0910425 399:0.69314718 #
0.0027775719787952496582505990119216 7:0.52609313 9:0.095310181 44:3.7841897 125:3.7841897 210:3.7841897 222:2.3978953 270:3.7841897 277:3.7841897 317:3.7841897 346:3.7841897 394:3.7841897 399:0.69314718 405:2.6855774 411:1.299283 447:3.0910425 448:3.0910425 #
0.0026083270672117146206370197347724 9:0.095310181 16:2.3978953 30:1.0761395 162:3.7841897 217:1.299283 222:2.3978953 249:3.7841897 323:3.0910425 332:3.7841897 387:3.7841897 395:3.7841897 440:3.0910425 449:3.7841897 #
0.0020587193507979190121304213789699 9:0.19062036 14:3.7841897 15:0.64869541 40:2.6855774 60:2.6855774 76:3.7841897 90:3.7841897 115:3.7841897 181:3.7841897 183:3.7841897 206:1.4816046 219:2.7725887 221:2.1747518 290:3.0910425 322:3.7841897 355:3.7841897 365:3.7841897 366:1.9924302 368:3.7841897 379:3.7841897 397:1.299283 399:0.69314718 411:1.299283 421:3.7841897 433:3.7841897 461:3.0910425 #
0.0014961446574203490951504580408482 7:0.52609313 9:0.095310181 15:1.2973908 30:1.0761395 31:3.7841897 43:2.1747518 89:3.7841897 114:3.7841897 141:3.7841897 148:1.8382795 159:3.7841897 163:3.7841897 171:3.7841897 198:3.7841897 219:1.3862944 221:2.1747518 266:3.0910425 281:3.0910425 289:2.4384806 363:3.0910425 396:2.6855774 399:0.69314718 407:3.0910425 410:3.7841897 411:1.299283 422:3.7841897 437:3.7841897 442:3.7841897 443:3.7841897 456:3.0910425 #
0.0028818141539363024104802857294771 9:0.095310181 15:0.64869541 22:3.7841897 57:3.7841897 153:3.7841897 289:2.4384806 291:2.6855774 372:3.7841897 399:0.69314718 419:3.7841897 #
0.002041610030224914711094452712814 7:1.0521863 9:0.19062036 15:1.2973908 51:3.7841897 124:3.7841897 128:2.6855774 179:3.7841897 206:1.4816046 217:1.299283 222:2.3978953 233:3.7841897 235:3.7841897 246:3.7841897 274:3.0910425 286:3.7841897 289:2.4384806 309:3.0910425 313:3.7841897 336:3.0910425 341:3.7841897 344:3.7841897 383:2.6855774 396:2.6855774 398:3.0910425 399:2.7725887 404:2.6855774 406:2.6855774 435:3.0910425 #
0.0028420003661847855272459817399522 7:1.0521863 9:0.095310181 32:3.7841897 129:2.3978953 176:3.7841897 268:3.7841897 295:3.0910425 329:3.7841897 351:3.7841897 360:3.7841897 411:1.299283 444:2.3978953 #
0.002320355815706847193991002598068 5:3.0910425 6:3.0910425 7:1.0521863 9:0.095310181 13:3.7841897 43:2.1747518 74:3.0910425 136:3.7841897 145:3.7841897 165:2.6855774 186:3.7841897 217:1.299283 263:3.7841897 399:2.7725887 408:3.0910425 411:2.5985661 436:2.6855774 439:3.7841897 446:3.7841897 #
0.0066352495264225498303178873982233 350:3.7841897 373:3.7841897 #
0.0040951744485536204984366115411376 9:0.095310181 30:1.0761395 80:3.7841897 116:3.7841897 126:3.7841897 289:1.2192403 291:2.6855774 328:3.0910425 397:1.299283 #
0.0013226120725794640597960949435219 7:0.52609313 9:0.095310181 15:0.64869541 23:2.6855774 30:2.1522789 148:1.8382795 185:3.7841897 217:1.299283 356:3.7841897 362:3.7841897 390:3.7841897 404:2.6855774 438:3.0910425 455:3.7841897 #
